<?xml version="1.0"?>
<opencv_storage>
<cascade>
  <stageType>BOOST</stageType>
  <featureType>LBP</featureType>
  <height>24</height>
  <width>24</width>
  <stageParams>
    <boostType>GAB</boostType>
    <minHitRate>9.9500000476837158e-01</minHitRate>
    <maxFalseAlarm>5.0000000000000000e-01</maxFalseAlarm>
    <weightTrimRate>9.4999999999999996e-01</weightTrimRate>
    <maxDepth>1</maxDepth>
    <maxWeakCount>100</maxWeakCount></stageParams>
  <featureParams>
    <maxCatCount>256</maxCatCount>
    <featSize>1</featSize></featureParams>
  <stageNum>11</stageNum>
  <stages>
    <!-- stage 0 -->
    <_>
      <maxWeakCount>2</maxWeakCount>
      <stageThreshold>-1.4875313639640808e-01</stageThreshold>
      <weakClassifiers>
        <_>
          <internalNodes>
            0 -1 20 1370609134 -707542063 295031285 -137248749
            -1002320946 -1885288258 -998012678 -3585</internalNodes>
          <leafValues>
            -9.2811059951782227e-01 8.3777040243148804e-01</leafValues></_>
        <_>
          <internalNodes>
            0 -1 13 -72623926 -754810878 -682413569 -7342629 -930427768
            -670530560 -544233222 -3409253</internalNodes>
          <leafValues>
            -9.1476398706436157e-01 7.7935749292373657e-01</leafValues></_></weakClassifiers></_>
    <!-- stage 1 -->
    <_>
      <maxWeakCount>2</maxWeakCount>
      <stageThreshold>-5.3779836744070053e-02</stageThreshold>
      <weakClassifiers>
        <_>
          <internalNodes>
            0 -1 11 -250347538 -251443706 -246296131 -34416184
            -134882321 -534373 -251671809 -68157729</internalNodes>
          <leafValues>
            -8.4965831041336060e-01 7.8394281864166260e-01</leafValues></_>
        <_>
          <internalNodes>
            0 -1 16 -657403404 -140830507 -564994081 -103329519
            -107041281 -37753128 -1465328929 -33557829</internalNodes>
          <leafValues>
            -8.1221020221710205e-01 7.9587846994400024e-01</leafValues></_></weakClassifiers></_>
    <!-- stage 2 -->
    <_>
      <maxWeakCount>2</maxWeakCount>
      <stageThreshold>-1.9909116625785828e-01</stageThreshold>
      <weakClassifiers>
        <_>
          <internalNodes>
            0 -1 25 -554181044 -572532907 -9442561 -12289 -590357761
            -542187959 -536886533 -654325025</internalNodes>
          <leafValues>
            -8.9316028356552124e-01 6.9583821296691895e-01</leafValues></_>
        <_>
          <internalNodes>
            0 -1 12 -35719716 -10748961 -41689892 -1146883430
            -2063756803 -34677705 -571668338 -67123489</internalNodes>
          <leafValues>
            -8.4904682636260986e-01 6.9406908750534058e-01</leafValues></_></weakClassifiers></_>
    <!-- stage 3 -->
    <_>
      <maxWeakCount>3</maxWeakCount>
      <stageThreshold>-9.2247861623764038e-01</stageThreshold>
      <weakClassifiers>
        <_>
          <internalNodes>
            0 -1 7 -771558670 -779947689 -729755265 -536882913
            -209194765 -73144837 -17835777 -15889</internalNodes>
          <leafValues>
            -8.0570900440216064e-01 7.2855955362319946e-01</leafValues></_>
        <_>
          <internalNodes>
            0 -1 26 -42797570 1930565439 -559751174 -14180470 -84023841
            -5509735 -453705478 -4195413</internalNodes>
          <leafValues>
            -8.1773453950881958e-01 6.8872290849685669e-01</leafValues></_>
        <_>
          <internalNodes>
            0 -1 23 -71305217 -55003145 -1681937028 -34539872 -302006987
            -332079819 -35657508 -17440769</internalNodes>
          <leafValues>
            -8.0549252033233643e-01 7.2967374324798584e-01</leafValues></_></weakClassifiers></_>
    <!-- stage 4 -->
    <_>
      <maxWeakCount>3</maxWeakCount>
      <stageThreshold>-8.9045816659927368e-01</stageThreshold>
      <weakClassifiers>
        <_>
          <internalNodes>
            0 -1 5 -235822424 -778713955 -69501539 -201468433
            -1330270465 -73800259 -504059425 -21</internalNodes>
          <leafValues>
            -7.8627359867095947e-01 7.1036207675933838e-01</leafValues></_>
        <_>
          <internalNodes>
            0 -1 28 -1032077089 -75788865 -488639557 -104879809
            -901264678 -89444965 -295204150 -79954049</internalNodes>
          <leafValues>
            -7.0644426345825195e-01 7.7476280927658081e-01</leafValues></_>
        <_>
          <internalNodes>
            0 -1 17 -2953300 -48893696 -1610747650 -42075779 -639305233
            -38732368 -35783427 -34473733</internalNodes>
          <leafValues>
            -8.7894737720489502e-01 6.3379836082458496e-01</leafValues></_></weakClassifiers></_>
    <!-- stage 5 -->
    <_>
      <maxWeakCount>3</maxWeakCount>
      <stageThreshold>-9.5890247821807861e-01</stageThreshold>
      <weakClassifiers>
        <_>
          <internalNodes>
            0 -1 30 -1120 -3154441 -348266025 -9708465 -87311446
            -1681129549 -1444420633 -277885081</internalNodes>
          <leafValues>
            -8.4233576059341431e-01 6.8717747926712036e-01</leafValues></_>
        <_>
          <internalNodes>
            0 -1 9 -134287370 -203792123 -836517041 -5274107 -22546433
            603127991 -4113 -1054737</internalNodes>
          <leafValues>
            -7.5244975090026855e-01 6.6660392284393311e-01</leafValues></_>
        <_>
          <internalNodes>
            0 -1 4 -147131462 -39832838 -67324961 2100514832 -71455766
            -1073784869 -252710913 -67152437</internalNodes>
          <leafValues>
            -7.8317070007324219e-01 6.5424305200576782e-01</leafValues></_></weakClassifiers></_>
    <!-- stage 6 -->
    <_>
      <maxWeakCount>3</maxWeakCount>
      <stageThreshold>-9.2244493961334229e-01</stageThreshold>
      <weakClassifiers>
        <_>
          <internalNodes>
            0 -1 3 1572329439 -6523114 -1073823748 -25643186 -1895850756
            -596583004 -1073747468 -69685</internalNodes>
          <leafValues>
            -8.0515760183334351e-01 6.7983871698379517e-01</leafValues></_>
        <_>
          <internalNodes>
            0 -1 24 -411046093 -1078985318 -34439181 -2114565 -438310997
            -2049184896 -50462789 -1664221813</internalNodes>
          <leafValues>
            -6.9613236188888550e-01 7.4256545305252075e-01</leafValues></_>
        <_>
          <internalNodes>
            0 -1 22 -42074114 -6308033 -34210050 -135273491 -524439570
            -101847077 -722084609 -167775749</internalNodes>
          <leafValues>
            -8.5985279083251953e-01 6.2857151031494141e-01</leafValues></_></weakClassifiers></_>
    <!-- stage 7 -->
    <_>
      <maxWeakCount>3</maxWeakCount>
      <stageThreshold>-7.6895344257354736e-01</stageThreshold>
      <weakClassifiers>
        <_>
          <internalNodes>
            0 -1 2 -15137 -536900886 -12579 -536936195 -33554945 -12849
            -13057 -805319473</internalNodes>
          <leafValues>
            -6.8456661701202393e-01 7.3291081190109253e-01</leafValues></_>
        <_>
          <internalNodes>
            0 -1 14 -23938305 -2894601 1037502799 -1573925 -63897605
            1060893683 -572699316 -2363518</internalNodes>
          <leafValues>
            -7.0078843832015991e-01 7.1922665834426880e-01</leafValues></_>
        <_>
          <internalNodes>
            0 -1 27 -823146290 -17341195 -352433926 -93068329 -926367540
            -558050058 -893728018 -92275009</internalNodes>
          <leafValues>
            -7.7560645341873169e-01 6.1640161275863647e-01</leafValues></_></weakClassifiers></_>
    <!-- stage 8 -->
    <_>
      <maxWeakCount>4</maxWeakCount>
      <stageThreshold>-3.7220147252082825e-01</stageThreshold>
      <weakClassifiers>
        <_>
          <internalNodes>
            0 -1 0 -16843026 -84500454 -289417426 -118497266 -135013681
            -268443745 -807674917 -822083617</internalNodes>
          <leafValues>
            -7.8433269262313843e-01 6.4724659919738770e-01</leafValues></_>
        <_>
          <internalNodes>
            0 -1 21 -134226435 -9062603 -8589380 -9131170 -52576865
            -864766092 -17444872 -864694410</internalNodes>
          <leafValues>
            -8.4377545118331909e-01 5.7180088758468628e-01</leafValues></_>
        <_>
          <internalNodes>
            0 -1 8 -20621 2147432243 -17829069 -134274269 -1360090181
            -1358982895 -1966169133 -990911949</internalNodes>
          <leafValues>
            -7.1899271011352539e-01 7.1100121736526489e-01</leafValues></_>
        <_>
          <internalNodes>
            0 -1 10 -366018654 2134900731 -9349 -79693893 -291048513
            -12666373 -272646657 -8915981</internalNodes>
          <leafValues>
            -8.7067091464996338e-01 5.6150156259536743e-01</leafValues></_></weakClassifiers></_>
    <!-- stage 9 -->
    <_>
      <maxWeakCount>3</maxWeakCount>
      <stageThreshold>-8.2088589668273926e-01</stageThreshold>
      <weakClassifiers>
        <_>
          <internalNodes>
            0 -1 6 -333479409 -203428337 -637274881 -792845 -16791330
            -146288865 -20120613 -279745333</internalNodes>
          <leafValues>
            -7.0703470706939697e-01 6.8213057518005371e-01</leafValues></_>
        <_>
          <internalNodes>
            0 -1 31 -285245883 -277357729 -9703640 -5508245 -16820212
            -68235709 -336237312 -68157659</internalNodes>
          <leafValues>
            -7.8600645065307617e-01 6.1705762147903442e-01</leafValues></_>
        <_>
          <internalNodes>
            0 -1 19 -741742673 -235871329 -537920001 -101139273
            -771889739 -1092638785 -1186307 -1140906053</internalNodes>
          <leafValues>
            -7.1701002120971680e-01 6.8126410245895386e-01</leafValues></_></weakClassifiers></_>
    <!-- stage 10 -->
    <_>
      <maxWeakCount>4</maxWeakCount>
      <stageThreshold>-3.7249207496643066e-01</stageThreshold>
      <weakClassifiers>
        <_>
          <internalNodes>
            0 -1 1 -2104605178 -271259298 -1112223777 -4589131
            -938631841 -2425157 -78081 -464150</internalNodes>
          <leafValues>
            -8.6241608858108521e-01 5.5348169803619385e-01</leafValues></_>
        <_>
          <internalNodes>
            0 -1 18 -119799842 -15074055 -1422687333 -1108504609
            -109093381 -109917157 1042484219 -552875765</internalNodes>
          <leafValues>
            -8.0201953649520874e-01 5.6011474132537842e-01</leafValues></_>
        <_>
          <internalNodes>
            0 -1 29 -1899510033 467084219 1490681663 -35967173 4705007
            -1465160881 1085794011 -478942657</internalNodes>
          <leafValues>
            -7.0667904615402222e-01 7.1009898185729980e-01</leafValues></_>
        <_>
          <internalNodes>
            0 -1 15 -86524098 -716097731 1580169055 -68160081
            -1066098691 431293357 -541873153 -395269</internalNodes>
          <leafValues>
            -7.7940946817398071e-01 6.5136426687240601e-01</leafValues></_></weakClassifiers></_></stages>
  <features>
    <_>
      <rect>
        0 0 2 8</rect></_>
    <_>
      <rect>
        0 0 8 1</rect></_>
    <_>
      <rect>
        0 8 5 3</rect></_>
    <_>
      <rect>
        0 21 8 1</rect></_>
    <_>
      <rect>
        1 3 5 2</rect></_>
    <_>
      <rect>
        2 0 7 2</rect></_>
    <_>
      <rect>
        2 18 4 1</rect></_>
    <_>
      <rect>
        3 0 4 3</rect></_>
    <_>
      <rect>
        5 6 1 3</rect></_>
    <_>
      <rect>
        5 8 2 3</rect></_>
    <_>
      <rect>
        6 6 2 3</rect></_>
    <_>
      <rect>
        6 7 3 2</rect></_>
    <_>
      <rect>
        6 10 2 3</rect></_>
    <_>
      <rect>
        6 11 4 4</rect></_>
    <_>
      <rect>
        6 14 6 3</rect></_>
    <_>
      <rect>
        7 13 3 2</rect></_>
    <_>
      <rect>
        7 18 3 2</rect></_>
    <_>
      <rect>
        8 14 3 2</rect></_>
    <_>
      <rect>
        8 14 3 3</rect></_>
    <_>
      <rect>
        9 5 2 2</rect></_>
    <_>
      <rect>
        9 7 3 2</rect></_>
    <_>
      <rect>
        9 8 2 2</rect></_>
    <_>
      <rect>
        9 8 3 2</rect></_>
    <_>
      <rect>
        9 10 2 1</rect></_>
    <_>
      <rect>
        10 18 4 1</rect></_>
    <_>
      <rect>
        12 6 2 3</rect></_>
    <_>
      <rect>
        12 10 2 3</rect></_>
    <_>
      <rect>
        15 4 2 2</rect></_>
    <_>
      <rect>
        16 2 2 4</rect></_>
    <_>
      <rect>
        17 4 1 4</rect></_>
    <_>
      <rect>
        18 1 2 7</rect></_>
    <_>
      <rect>
        21 6 1 4</rect></_></features></cascade>
</opencv_storage>
